<?xml version="1.0"?>
<opencv_storage>
<cascade>
  <stageType>BOOST</stageType>
  <featureType>HAAR</featureType>
  <height>20</height>
  <width>20</width>
  <stageParams>
    <boostType>GAB</boostType>
    <minHitRate>9.9500000476837158e-01</minHitRate>
    <maxFalseAlarm>5.0000000000000000e-01</maxFalseAlarm>
    <weightTrimRate>9.4999999999999996e-01</weightTrimRate>
    <maxDepth>1</maxDepth>
    <maxWeakCount>100</maxWeakCount></stageParams>
  <featureParams>
    <maxCatCount>0</maxCatCount>
    <featSize>1</featSize>
    <mode>ALL</mode></featureParams>
  <stageNum>9</stageNum>
  <stages>
    <!-- stage 0 -->
    <_>
      <maxWeakCount>3</maxWeakCount>
      <stageThreshold>-1.4112458229064941e+00</stageThreshold>
      <weakClassifiers>
        <_>
          <internalNodes>
            0 -1 4 1.0301787406206131e-01</internalNodes>
          <leafValues>
            -9.7974216938018799e-01 6.3636362552642822e-01</leafValues></_>
        <_>
          <internalNodes>
            0 -1 0 7.3104701936244965e-02</internalNodes>
          <leafValues>
            -9.3842756748199463e-01 6.0406219959259033e-01</leafValues></_>
        <_>
          <internalNodes>
            0 -1 13 6.9716036319732666e-02</internalNodes>
          <leafValues>
            -9.2384833097457886e-01 5.0692397356033325e-01</leafValues></_></weakClassifiers></_>
    <!-- stage 1 -->
    <_>
      <maxWeakCount>3</maxWeakCount>
      <stageThreshold>-1.6648517847061157e+00</stageThreshold>
      <weakClassifiers>
        <_>
          <internalNodes>
            0 -1 28 7.4671745300292969e-02</internalNodes>
          <leafValues>
            -9.7250229120254517e-01 6.6666668653488159e-01</leafValues></_>
        <_>
          <internalNodes>
            0 -1 1 6.2237806618213654e-02</internalNodes>
          <leafValues>
            -9.6517467498779297e-01 2.0325456559658051e-01</leafValues></_>
        <_>
          <internalNodes>
            0 -1 22 -3.0596263706684113e-02</internalNodes>
          <leafValues>
            3.5240775346755981e-01 -8.9560407400131226e-01</leafValues></_></weakClassifiers></_>
    <!-- stage 2 -->
    <_>
      <maxWeakCount>4</maxWeakCount>
      <stageThreshold>-2.2142486572265625e+00</stageThreshold>
      <weakClassifiers>
        <_>
          <internalNodes>
            0 -1 5 2.6937386393547058e-01</internalNodes>
          <leafValues>
            -9.7433549165725708e-01 1.</leafValues></_>
        <_>
          <internalNodes>
            0 -1 3 -2.3540578782558441e-02</internalNodes>
          <leafValues>
            5.0103455781936646e-01 -8.9964783191680908e-01</leafValues></_>
        <_>
          <internalNodes>
            0 -1 21 -2.7758304029703140e-02</internalNodes>
          <leafValues>
            5.4086953401565552e-01 -7.9129976034164429e-01</leafValues></_>
        <_>
          <internalNodes>
            0 -1 18 8.1640863791108131e-03</internalNodes>
          <leafValues>
            -8.8113480806350708e-01 5.0322037935256958e-01</leafValues></_></weakClassifiers></_>
    <!-- stage 3 -->
    <_>
      <maxWeakCount>4</maxWeakCount>
      <stageThreshold>-2.0327970981597900e+00</stageThreshold>
      <weakClassifiers>
        <_>
          <internalNodes>
            0 -1 30 3.4632138907909393e-02</internalNodes>
          <leafValues>
            -9.7069597244262695e-01 6.0000002384185791e-01</leafValues></_>
        <_>
          <internalNodes>
            0 -1 9 -1.3300764560699463e-01</internalNodes>
          <leafValues>
            3.8401046395301819e-01 -8.8319009542465210e-01</leafValues></_>
        <_>
          <internalNodes>
            0 -1 12 1.3318636454641819e-02</internalNodes>
          <leafValues>
            -7.5847941637039185e-01 5.3256261348724365e-01</leafValues></_>
        <_>
          <internalNodes>
            0 -1 26 3.2882101833820343e-02</internalNodes>
          <leafValues>
            -7.1147370338439941e-01 6.3750767707824707e-01</leafValues></_></weakClassifiers></_>
    <!-- stage 4 -->
    <_>
      <maxWeakCount>3</maxWeakCount>
      <stageThreshold>-2.1825590133666992e+00</stageThreshold>
      <weakClassifiers>
        <_>
          <internalNodes>
            0 -1 10 2.6052007079124451e-01</internalNodes>
          <leafValues>
            -9.7426468133926392e-01 3.3333334326744080e-01</leafValues></_>
        <_>
          <internalNodes>
            0 -1 24 3.9800480008125305e-02</internalNodes>
          <leafValues>
            -9.3524110317230225e-01 -2.6093834638595581e-01</leafValues></_>
        <_>
          <internalNodes>
            0 -1 23 3.6724880337715149e-03</internalNodes>
          <leafValues>
            -9.4735592603683472e-01 1.0910198092460632e-01</leafValues></_></weakClassifiers></_>
    <!-- stage 5 -->
    <_>
      <maxWeakCount>4</maxWeakCount>
      <stageThreshold>-2.4374160766601563e+00</stageThreshold>
      <weakClassifiers>
        <_>
          <internalNodes>
            0 -1 6 2.6199164986610413e-01</internalNodes>
          <leafValues>
            -9.7603684663772583e-01 1.6666667163372040e-01</leafValues></_>
        <_>
          <internalNodes>
            0 -1 25 1.1799842119216919e-02</internalNodes>
          <leafValues>
            -8.9424973726272583e-01 1.2161745876073837e-01</leafValues></_>
        <_>
          <internalNodes>
            0 -1 14 3.5882596857845783e-03</internalNodes>
          <leafValues>
            -8.8163983821868896e-01 2.4286280572414398e-01</leafValues></_>
        <_>
          <internalNodes>
            0 -1 19 4.8476923257112503e-03</internalNodes>
          <leafValues>
            -9.5122188329696655e-01 3.1451037526130676e-01</leafValues></_></weakClassifiers></_>
    <!-- stage 6 -->
    <_>
      <maxWeakCount>3</maxWeakCount>
      <stageThreshold>-1.7286320924758911e+00</stageThreshold>
      <weakClassifiers>
        <_>
          <internalNodes>
            0 -1 27 6.0795526951551437e-02</internalNodes>
          <leafValues>
            -9.6892136335372925e-01 1.</leafValues></_>
        <_>
          <internalNodes>
            0 -1 8 -1.2768077850341797e-01</internalNodes>
          <leafValues>
            4.4504693150520325e-01 -8.9977890253067017e-01</leafValues></_>
        <_>
          <internalNodes>
            0 -1 20 6.0409083962440491e-03</internalNodes>
          <leafValues>
            -9.5968753099441528e-01 1.4006826281547546e-01</leafValues></_></weakClassifiers></_>
    <!-- stage 7 -->
    <_>
      <maxWeakCount>3</maxWeakCount>
      <stageThreshold>-2.1626226902008057e+00</stageThreshold>
      <weakClassifiers>
        <_>
          <internalNodes>
            0 -1 29 9.4481259584426880e-03</internalNodes>
          <leafValues>
            -9.6892136335372925e-01 1.</leafValues></_>
        <_>
          <internalNodes>
            0 -1 2 8.9890658855438232e-03</internalNodes>
          <leafValues>
            -9.4181871414184570e-01 -2.4860145151615143e-01</leafValues></_>
        <_>
          <internalNodes>
            0 -1 17 1.0565448552370071e-02</internalNodes>
          <leafValues>
            -9.4509989023208618e-01 6.1338678002357483e-02</leafValues></_></weakClassifiers></_>
    <!-- stage 8 -->
    <_>
      <maxWeakCount>4</maxWeakCount>
      <stageThreshold>-2.2373914718627930e+00</stageThreshold>
      <weakClassifiers>
        <_>
          <internalNodes>
            0 -1 11 -3.9981281757354736e-01</internalNodes>
          <leafValues>
            1. -9.6892136335372925e-01</leafValues></_>
        <_>
          <internalNodes>
            0 -1 16 -3.2453790307044983e-02</internalNodes>
          <leafValues>
            4.4504693150520325e-01 -8.6568915843963623e-01</leafValues></_>
        <_>
          <internalNodes>
            0 -1 7 2.4546172469854355e-02</internalNodes>
          <leafValues>
            -7.8742706775665283e-01 3.7802049517631531e-01</leafValues></_>
        <_>
          <internalNodes>
            0 -1 15 8.5792159661650658e-03</internalNodes>
          <leafValues>
            -7.8080147504806519e-01 4.8982739448547363e-01</leafValues></_></weakClassifiers></_></stages>
  <features>
    <_>
      <rects>
        <_>
          0 0 20 2 -1.</_>
        <_>
          5 0 10 2 2.</_></rects>
      <tilted>0</tilted></_>
    <_>
      <rects>
        <_>
          0 1 4 15 -1.</_>
        <_>
          2 1 2 15 2.</_></rects>
      <tilted>0</tilted></_>
    <_>
      <rects>
        <_>
          0 2 2 4 -1.</_>
        <_>
          1 2 1 4 2.</_></rects>
      <tilted>0</tilted></_>
    <_>
      <rects>
        <_>
          0 7 2 10 -1.</_>
        <_>
          0 7 1 5 2.</_>
        <_>
          1 12 1 5 2.</_></rects>
      <tilted>0</tilted></_>
    <_>
      <rects>
        <_>
          0 16 18 2 -1.</_>
        <_>
          6 16 6 2 3.</_></rects>
      <tilted>0</tilted></_>
    <_>
      <rects>
        <_>
          1 3 16 12 -1.</_>
        <_>
          1 6 16 6 2.</_></rects>
      <tilted>0</tilted></_>
    <_>
      <rects>
        <_>
          1 3 19 9 -1.</_>
        <_>
          1 6 19 3 3.</_></rects>
      <tilted>0</tilted></_>
    <_>
      <rects>
        <_>
          1 7 19 4 -1.</_>
        <_>
          1 8 19 2 2.</_></rects>
      <tilted>0</tilted></_>
    <_>
      <rects>
        <_>
          2 1 16 6 -1.</_>
        <_>
          2 3 16 2 3.</_></rects>
      <tilted>0</tilted></_>
    <_>
      <rects>
        <_>
          2 1 18 6 -1.</_>
        <_>
          2 3 18 2 3.</_></rects>
      <tilted>0</tilted></_>
    <_>
      <rects>
        <_>
          2 3 17 9 -1.</_>
        <_>
          2 6 17 3 3.</_></rects>
      <tilted>0</tilted></_>
    <_>
      <rects>
        <_>
          2 5 16 14 -1.</_>
        <_>
          2 12 16 7 2.</_></rects>
      <tilted>0</tilted></_>
    <_>
      <rects>
        <_>
          2 13 2 6 -1.</_>
        <_>
          3 13 1 6 2.</_></rects>
      <tilted>0</tilted></_>
    <_>
      <rects>
        <_>
          3 4 4 16 -1.</_>
        <_>
          3 8 4 8 2.</_></rects>
      <tilted>0</tilted></_>
    <_>
      <rects>
        <_>
          4 0 3 1 -1.</_>
        <_>
          5 1 1 1 3.</_></rects>
      <tilted>1</tilted></_>
    <_>
      <rects>
        <_>
          4 0 3 2 -1.</_>
        <_>
          5 1 1 2 3.</_></rects>
      <tilted>1</tilted></_>
    <_>
      <rects>
        <_>
          4 1 2 6 -1.</_>
        <_>
          4 3 2 2 3.</_></rects>
      <tilted>0</tilted></_>
    <_>
      <rects>
        <_>
          5 3 8 3 -1.</_>
        <_>
          7 3 4 3 2.</_></rects>
      <tilted>0</tilted></_>
    <_>
      <rects>
        <_>
          5 5 1 9 -1.</_>
        <_>
          5 8 1 3 3.</_></rects>
      <tilted>0</tilted></_>
    <_>
      <rects>
        <_>
          7 14 3 3 -1.</_>
        <_>
          6 15 3 1 3.</_></rects>
      <tilted>1</tilted></_>
    <_>
      <rects>
        <_>
          8 0 11 4 -1.</_>
        <_>
          8 1 11 2 2.</_></rects>
      <tilted>0</tilted></_>
    <_>
      <rects>
        <_>
          10 2 9 1 -1.</_>
        <_>
          13 5 3 1 3.</_></rects>
      <tilted>1</tilted></_>
    <_>
      <rects>
        <_>
          10 17 10 2 -1.</_>
        <_>
          15 17 5 2 2.</_></rects>
      <tilted>0</tilted></_>
    <_>
      <rects>
        <_>
          11 15 1 4 -1.</_>
        <_>
          10 16 1 2 2.</_></rects>
      <tilted>1</tilted></_>
    <_>
      <rects>
        <_>
          12 2 6 6 -1.</_>
        <_>
          10 4 6 2 3.</_></rects>
      <tilted>1</tilted></_>
    <_>
      <rects>
        <_>
          12 5 5 2 -1.</_>
        <_>
          12 6 5 1 2.</_></rects>
      <tilted>0</tilted></_>
    <_>
      <rects>
        <_>
          12 6 8 7 -1.</_>
        <_>
          14 6 4 7 2.</_></rects>
      <tilted>0</tilted></_>
    <_>
      <rects>
        <_>
          14 2 6 6 -1.</_>
        <_>
          14 2 3 3 2.</_>
        <_>
          17 5 3 3 2.</_></rects>
      <tilted>0</tilted></_>
    <_>
      <rects>
        <_>
          16 8 4 10 -1.</_>
        <_>
          16 8 2 5 2.</_>
        <_>
          18 13 2 5 2.</_></rects>
      <tilted>0</tilted></_>
    <_>
      <rects>
        <_>
          17 15 2 1 -1.</_>
        <_>
          18 15 1 1 2.</_></rects>
      <tilted>0</tilted></_>
    <_>
      <rects>
        <_>
          18 5 2 10 -1.</_>
        <_>
          18 5 1 5 2.</_>
        <_>
          19 10 1 5 2.</_></rects>
      <tilted>0</tilted></_></features></cascade>
</opencv_storage>
