<?xml version="1.0"?>
<opencv_storage>
<cascade>
  <stageType>BOOST</stageType>
  <featureType>LBP</featureType>
  <height>25</height>
  <width>25</width>
  <stageParams>
    <boostType>GAB</boostType>
    <minHitRate>9.9500000476837158e-01</minHitRate>
    <maxFalseAlarm>1.5000000596046448e-01</maxFalseAlarm>
    <weightTrimRate>9.4999999999999996e-01</weightTrimRate>
    <maxDepth>3</maxDepth>
    <maxWeakCount>100</maxWeakCount></stageParams>
  <featureParams>
    <maxCatCount>256</maxCatCount>
    <featSize>1</featSize></featureParams>
  <stageNum>25</stageNum>
  <stages>
    <!-- stage 0 -->
    <_>
      <maxWeakCount>2</maxWeakCount>
      <stageThreshold>5.4347827099263668e-03</stageThreshold>
      <weakClassifiers>
        <_>
          <internalNodes>
            1 2 200 -176693809 -1463537273 1623425284 -354877289
            -1466924198 -1303672797 -225982749 -738729273 3 4 55
            -728237569 -799895543 -2147368697 -1265516350 -993922421
            -1073164992 -1056748917 -35653093 5 6 153 -270078100
            787316719 1 426112 2048 268435457 -134217739 1700591607 0 -1
            31 -133113351 -79331183 -1862189035 -46546939 -2105505601
            -74973056 -524254805 -550925888 -2 -3 0 0 32768 0 0 0 0 128
            0 -4 -5 8 21008 67608 65665 17825792 8389260 134217729
            -2147483640 -1979711487 -6 -7 0 0 0 -2147483648 0 0 0 0
            67108864</internalNodes>
          <leafValues>
            -9.9456518888473511e-01 1. -1. 1. -1. 1. -1. 1.</leafValues></_>
        <_>
          <internalNodes>
            1 2 200 -176693809 -1463537273 1623425284 -354877289
            -1466924198 -1303672797 -225982749 -1007164729 3 4 55
            -728237569 -799895543 -2147368697 -1265516350 -993922421
            -1073164992 -1056748917 -35653093 5 6 153 -2097094396
            33574912 0 426112 2048 268435457 8391040 1140924545 0 -1 31
            -133113351 -79331183 -1862189035 -46546939 -2105505601
            -74973056 -524254805 -550925888 -2 -3 0 0 32768 0 0 0 0 128
            0 -4 -5 16 -1056849790 1 8 268468225 4194312 1 11
            -1048510464 -6 -7 0 0 0 -2147483648 0 0 0 0 67108864</internalNodes>
          <leafValues>
            -1. 1. -1. 1. -1. 1. -1. 1.</leafValues></_></weakClassifiers></_>
    <!-- stage 1 -->
    <_>
      <maxWeakCount>2</maxWeakCount>
      <stageThreshold>1.0509221814572811e-02</stageThreshold>
      <weakClassifiers>
        <_>
          <internalNodes>
            1 2 36 -473701729 -1610184945 -1073741821 -1341291897
            -896737019 -1878523904 -1475886842 -473437205 3 4 191
            -795094017 -377273917 1082228747 -1056636925 -1068531237
            -804683645 -1073358461 -30416165 0 5 128 285212930 256 33280
            1342275712 268435458 0 2081 1074274304 -1 -2 178 -148913169
            -939458557 -1073676096 -1065227605 -964575222 1073807361
            -805191607 -3149857 -3 -4 1 16777217 0 0 0 0 0 0 8192 -5 -6
            4 16384 0 0 0 0 1073741824 0 131072</internalNodes>
          <leafValues>
            -1. -9.7340422868728638e-01 6.6666668653488159e-01 -1. 1.
            -1. 1.</leafValues></_>
        <_>
          <internalNodes>
            1 2 155 -201462817 -1056858105 -1056784224 -1056636781
            -763166317 1628160002 109635779 -16260417 3 4 61 -671099905
            -1019009021 -1606348654 142983170 -1039638509 -1073545080
            -662598971 -83889429 0 5 108 1082171399 -805306368 0
            1073741825 -2113798144 131072 33587200 264192 -1 -2 191
            -778316961 -394051389 1073840139 -1023033341 -1039162917
            -804683645 -1073358453 -22289709 -3 -4 12 272666624 32768 0
            65536 0 0 0 65536 -5 -6 2 259 1073741824 0 0 0 0 0 0</internalNodes>
          <leafValues>
            -1. -9.8949080705642700e-01 8.2922482490539551e-01 -1. 1.
            -1. 1.</leafValues></_></weakClassifiers></_>
    <!-- stage 2 -->
    <_>
      <maxWeakCount>2</maxWeakCount>
      <stageThreshold>1.0748638771474361e-02</stageThreshold>
      <weakClassifiers>
        <_>
          <internalNodes>
            1 2 170 -222045377 -1023180765 6 -259473405 -527859581 65541
            -251157885 -124787765 3 4 199 -211558209 -910031740
            -1056944128 -519634291 -1874100083 -805306232 -1736212349
            -5510225 5 0 41 -16847194 16711679 1 65536 0 0 -8388608
            1342439423 -1 -2 186 -709103145 -50081789 100357 -150756985
            -2141134705 -2147385344 -1971139925 -103816213 -3 -4 2
            -2143289278 8388608 0 8 1073741824 0 130 196736 -5 -6 5
            131075 0 2 131072 0 0 0 -268435200</internalNodes>
          <leafValues>
            1. -9.7866666316986084e-01 7.7777779102325439e-01 -1. 1. -1.
            1.</leafValues></_>
        <_>
          <internalNodes>
            1 2 59 -138945649 1392738315 1073827840 1624293895
            1434501186 -2147287037 -268238962 -154418481 3 4 115
            -653164325 -1756299119 319030367 1560609025 -1593800481
            -124778360 -1954539365 -670250325 5 0 26 192 268435457 128
            286277632 16 -2139095040 0 1610645504 -1 -2 73 -801580577
            -720154291 -661651299 -49217135 -1060535109 -643694450
            -1710120197 -571800689 -3 -4 104 32769 1074790401 2162704
            -2046787584 16 129 536903680 -2147483639 -5 -6 1 1073840128
            268451840 0 262144 8 0 65538 -805305853</internalNodes>
          <leafValues>
            1. -9.8925137519836426e-01 6.4126199483871460e-01 -1. 1. -1.
            1.</leafValues></_></weakClassifiers></_>
    <!-- stage 3 -->
    <_>
      <maxWeakCount>2</maxWeakCount>
      <stageThreshold>5.6818183511495590e-03</stageThreshold>
      <weakClassifiers>
        <_>
          <internalNodes>
            1 2 114 -1865399849 1427113984 -788526689 -1726905837
            -1207336774 -1098858367 -1601697623 -1374158847 3 4 165
            -687345513 -247463901 -2097084133 -545161214 -1610499653
            -92269949 5016287 -72677365 5 6 156 251645870 1879043842
            -268521478 -1359544322 -557068 -32778 1073610736 -1363705993
            0 -1 53 -1325395555 -653262367 16781721 1527844945
            -2147448646 -1736441855 -2013230453 -114196352 -2 -3 0 0 0 0
            -2147483648 0 0 34 0 -4 -5 19 1078001749 269025280 32768
            -1056898936 8388864 2097280 -1073709052 -1861973630 -6 -7 10
            0 0 0 65536 0 0 8388616 65536</internalNodes>
          <leafValues>
            -9.9431818723678589e-01 7.1428573131561279e-01 -1. 1. -1. 1.
            -1. 1.</leafValues></_>
        <_>
          <internalNodes>
            1 2 116 -268435435 -787414947 285213085 -778690424 35049
            -1199046519 150995339 -1465319285 3 4 24 1409413597
            -586071735 285219157 -1659432943 -2147442501 -1148563320
            -2147443831 -80238073 5 0 146 -406847508 1878962163 -2
            -1879113986 -32779 2147483647 2147417974 750784899 -1 -2 89
            -788401955 -751500964 92476749 -48689023 -1946106949
            -1751908216 -805246833 -7616373 -3 -4 12 49152 4096 0 0
            32896 0 0 -2147483646 -5 -6 0 1342177280 33554432 2
            1073741824 1073741952 0 -1073741816 -1205862389</internalNodes>
          <leafValues>
            1. -9.7371256351470947e-01 1. -1. 1. -1. 1.</leafValues></_></weakClassifiers></_>
    <!-- stage 4 -->
    <_>
      <maxWeakCount>2</maxWeakCount>
      <stageThreshold>1.1331444606184959e-02</stageThreshold>
      <weakClassifiers>
        <_>
          <internalNodes>
            1 2 85 67114353 -772730727 268779839 -717159144 -1700224353
            -108986232 -1207920229 -345177983 3 4 38 -574637629
            1506377739 1342357706 -169622269 1409402987 -1593147237
            -896367701 -36974205 0 5 82 1074053137 1077944330 0
            -2126512128 -2147450880 -2113929216 2 14 -1 -2 133
            -787374599 -641662847 403769789 -182384639 -1862237285
            -645363448 -2013034289 -1081367125 -3 -4 12 1073741962
            268435456 0 0 33554432 -2147483648 -2147483640 16777216 -5
            -6 36 16384 131072 0 4194304 0 0 65536 65536</internalNodes>
          <leafValues>
            -1. -9.8866856098175049e-01 7.5000000000000000e-01 -1. 1.
            -1. 1.</leafValues></_>
        <_>
          <internalNodes>
            1 2 114 -1878768493 -1848356493 1094783065 -585790859
            -200793367 -1476392496 -2138946881 -366476121 3 4 57
            -775693825 -738197429 -2147016629 -1828466422 -972848602
            -134215675 -976512598 -137909621 5 6 25 24772 285278208 0
            -1795162112 -1073737720 -2143289216 131241 377848193 0 -1
            123 -1043163717 -787396592 285444511 -553058047 -1434277461
            -645726199 -1207334261 -1883596662 -2 -3 1 32768 0 0
            268435456 0 0 0 1342177288 -4 -5 17 -1073385471 -1610612667
            -2080374784 1082195969 16917120 256 2056 -987561587 -6 -7 41
            0 0 135168 0 0 0 -2147474944 268435456</internalNodes>
          <leafValues>
            -9.8857748508453369e-01 7.4751067161560059e-01 -1. 1. -1. 1.
            -1. 1.</leafValues></_></weakClassifiers></_>
    <!-- stage 5 -->
    <_>
      <maxWeakCount>2</maxWeakCount>
      <stageThreshold>1.1267605237662792e-02</stageThreshold>
      <weakClassifiers>
        <_>
          <internalNodes>
            1 2 58 1533014015 1182968231 -1073004536 -796751698
            -2138291677 -1593720446 -1509522681 -5247033 3 4 41
            1360775167 -647215993 17203269 -1211400165 -1608387829
            -636977142 -938767985 -203693345 5 6 30 -2147450874 8388680
            16777224 1207992321 8650752 134217744 -2004877246 362873344
            0 -1 187 -143401617 -779058813 -1878912757 -719626173
            -633281365 -1979513824 -1065303457 -7340901 -2 -3 0 0 0 1
            8352 0 0 32768 2 -4 -5 0 65794 1359020064 67113105
            1342701568 -2147450752 0 553 -1207822271 -6 -7 1 0
            -2147483648 131072 16777218 0 0 0 0</internalNodes>
          <leafValues>
            -9.8873239755630493e-01 6.0000002384185791e-01 -1. 1. -1. 1.
            -1. 1.</leafValues></_>
        <_>
          <internalNodes>
            1 2 168 -174990362 1905066003 1023886211 -2055012127
            -894373709 -1651343352 -1331504213 -1312313193 3 4 125
            -203430913 -776665853 -1065352685 2032771138 814399583
            -2097086334 -402519895 -337122737 5 6 113 1048899 490799240
            -2147483568 0 -2147467264 -2145288192 -2147481464 671121552
            0 -1 72 -37366793 -774826831 268538329 -548846421
            -2011053585 -1177976181 -1054750017 -3177301 -2 -3 9 0 0
            67239936 131072 128 0 136 0 -4 -5 1 1140918039 261 272 2
            32904 0 2048 -901675006 -6 -7 9 32768 0 16 128 0 0 0 0</internalNodes>
          <leafValues>
            -9.8362630605697632e-01 7.1151518821716309e-01 -1. 1. -1. 1.
            -1. 1.</leafValues></_></weakClassifiers></_>
    <!-- stage 6 -->
    <_>
      <maxWeakCount>2</maxWeakCount>
      <stageThreshold>2.7932960540056229e-02</stageThreshold>
      <weakClassifiers>
        <_>
          <internalNodes>
            1 2 92 -1325262507 -216379361 -520077027 -654048239
            -1342060296 -1800856536 -1325232981 -1951909243 3 4 87
            1364267475 1503072521 151060959 1593901057 -1987534663
            -81788800 -670529382 -74872568 5 6 173 1878982502
            -1091575810 -65537 602930943 268468233 -1073741824 -36352
            1983741821 0 -1 93 -1877880361 -779091819 286267867
            -552531939 -2012626695 -875523944 -2004711285 -82083831 -2
            -3 4 65538 0 0 0 0 0 0 -2147483646 -4 -5 1 1073845120
            -1073610750 0 838860800 -2147483648 0 -2147352576 -476868093
            -6 -7 0 0 0 0 0 0 0 0 1073807360</internalNodes>
          <leafValues>
            -9.7206705808639526e-01 1. -1. 1. -1. 1. -1. 1.</leafValues></_>
        <_>
          <internalNodes>
            1 2 142 -772683467 -553582448 -2130656983 -1655631869
            -461184865 -1837039616 -2130671525 -291929397 3 4 154
            -749210117 -141438591 1098941193 -351371111 -527322979
            -886964219 -670988898 -536901057 5 0 196 1073758272
            1073774593 0 -2147483647 8 285212672 268470272 -1073676278
            -1 -2 117 -1987849985 -720301999 1375731839 -183828467
            1744830891 -80936920 -926250773 -273970513 -3 -4 8 524292 0
            1 1358954496 130 16777216 160 32768 -5 -6 0 -1073741815 0
            1073872896 419463168 0 -1610612736 130 -2147368958</internalNodes>
          <leafValues>
            1. -9.6800547838211060e-01 6.8496465682983398e-01 -1. 1. -1.
            1.</leafValues></_></weakClassifiers></_>
    <!-- stage 7 -->
    <_>
      <maxWeakCount>2</maxWeakCount>
      <stageThreshold>2.7247956022620201e-02</stageThreshold>
      <weakClassifiers>
        <_>
          <internalNodes>
            1 2 131 -703114883 -216645499 -922418741 -721153583
            -1342076529 -1182039925 -643792677 -1364262773 3 4 60
            -607128609 -788299575 142868550 985858955 -1063927139
            -1987477494 -486354709 -8918065 5 0 145 -98562 788463103
            -4098 16908415 -2147450842 -2147483648 -8429568 1073936254
            -1 -2 112 -971648545 -721223663 -1862231973 -111869936
            -662640417 -130250614 -1984747089 -91520614 -3 -4 47
            67108866 69632 131088 268435456 16777216 16416 136 268435456
            -5 -6 8 16915 268435457 1 -1073741824 134283264 -2147483648
            0 -2146959357</internalNodes>
          <leafValues>
            1. -9.7275203466415405e-01 6.3636362552642822e-01 -1. 1. -1.
            1.</leafValues></_>
        <_>
          <internalNodes>
            1 2 130 -654307243 2005402897 277088703 -150384571
            -1468004165 -1333788519 -1199527169 -91717352 3 4 161
            -203819049 -657259811 -1065352957 -717139671 -536846117
            -643822711 622045423 -7476501 5 6 109 131076 128 0
            1073741824 8194 -2139095040 50331904 92340232 0 -1 35
            -778838049 -1721817893 -2121187249 1498644741 -1811119927
            -1828191991 -502994293 -72367445 -2 -3 30 1048708
            -2147483647 0 16842761 0 0 9 4259840 -4 -5 0 1048577 1053184
            1 -1073741824 4288 524288 0 -2004746110 -6 -7 0 0 0 0 0
            -2147483648 0 0 0</internalNodes>
          <leafValues>
            -9.5413678884506226e-01 8.2735884189605713e-01 -1. 1. -1. 1.
            -1. 1.</leafValues></_></weakClassifiers></_>
    <!-- stage 8 -->
    <_>
      <maxWeakCount>2</maxWeakCount>
      <stageThreshold>1.6997167840600014e-02</stageThreshold>
      <weakClassifiers>
        <_>
          <internalNodes>
            1 2 134 -1684715523 -1198423781 1543573565 -149895159
            -509431655 -1701312510 -2004016711 -1182128999 3 4 171
            -716127785 -720371584 271077715 -16043119 -268288813
            -914319213 -213270277 -4685301 5 6 36 -1069514750
            -2147418048 32768 65537 -2113863679 69206016 34 20976130 0
            -1 54 -779027969 -104394669 1350631867 -582680139 -905012581
            -1316941152 -2012440322 -3546964 -2 -3 1 131072 0 0 66048 0
            16777216 2 134217729 -4 -5 0 1073872916 -763035519 1
            1124106248 293634176 -2147483648 128 1619197954 -6 -7 49
            268435456 -2147483648 262144 0 1073741824 0 0 1073741826</internalNodes>
          <leafValues>
            -9.8300284147262573e-01 7.5000000000000000e-01 -1. 1. -1. 1.
            -1. 1.</leafValues></_>
        <_>
          <internalNodes>
            1 2 88 -238486753 1922236429 -2146860777 -1526448047
            -1733364969 431073291 -863829287 -5518757 3 4 161 -104334849
            -15236687 -1655378689 -75300519 -905803029 -577076070
            -880680807 -351548706 5 6 118 134275107 25231872 0 134252552
            134225928 0 2088 411043858 0 -1 181 -841493505 -788512555
            -1852831163 -777670636 -939224951 -649983989 -788297105
            -2104625 -2 -3 13 0 -1879015424 0 65536 1 0 0 1114114 -4 -5
            7 1082294514 1124302848 0 0 128 16777218 -2147418112
            -1073283070 -6 -7 3 32768 0 0 -2147483648 0 134217728 0 0</internalNodes>
          <leafValues>
            -9.7814518213272095e-01 8.0251902341842651e-01 -1. 1. -1. 1.
            -1. 1.</leafValues></_></weakClassifiers></_>
    <!-- stage 9 -->
    <_>
      <maxWeakCount>2</maxWeakCount>
      <stageThreshold>2.1295560523867607e-02</stageThreshold>
      <weakClassifiers>
        <_>
          <internalNodes>
            1 2 148 -154954785 -141459191 -1995863741 -1492582363
            -1039781669 -125665244 -1467971361 -810825211 3 4 62
            -179833857 1992601797 268518296 -170852065 -1323990849
            -1474821686 -1878721909 -38020486 0 5 141 1073815810
            268443972 129 16777216 16810113 0 262148 8388608 -1 -2 115
            -788295297 -720699342 -1996467873 -1685901049 -1442082134
            -106135413 -2012435733 -275027813 -3 -4 20 1073741825 0 0
            1073741824 193 0 0 8519712 -5 -6 0 0 -2147483648 0 0 0
            134217728 0 0</internalNodes>
          <leafValues>
            -1. -9.5710456371307373e-01 6.0000002384185791e-01 -1. 1.
            -1. 1.</leafValues></_>
        <_>
          <internalNodes>
            1 2 83 1702058463 -1274769255 -1735851629 -1604681709
            -888936061 -1742372861 -880686864 -34878802 3 0 193
            -786435649 -740621946 -2147287023 -206335677 4964557
            -1694498814 -795279153 -136320081 4 5 43 268578834
            -2147483648 131328 -1878261760 -2147352016 536870912 819212
            -364148608 -1 -2 122 -266604065 -376860341 25436241
            -48295356 -788274999 -921991038 -124966517 -6045029 -3 -4 10
            1141117842 285474832 257 -713031679 0 -2147483648 170
            -1434189686 -5 -6 5 -2147483648 17825792 0 0 0 0 0 0</internalNodes>
          <leafValues>
            1. -9.7870445251464844e-01 3.6896619200706482e-01 -1. 1. -1.
            1.</leafValues></_></weakClassifiers></_>
    <!-- stage 10 -->
    <_>
      <maxWeakCount>2</maxWeakCount>
      <stageThreshold>1.1869436129927635e-02</stageThreshold>
      <weakClassifiers>
        <_>
          <internalNodes>
            1 2 146 -175384107 798228771 -146788025 121831942
            -1040164457 -350748670 537060438 -120076885 3 4 179
            -716447809 -37584523 1360054593 -50208309 -268232209
            -260042495 -2133114485 -73426225 5 6 158 1073477375
            -1358954497 -268441665 -285212673 2143256439 -1 -671088640
            -150994955 0 -1 94 -251603457 -720289535 537954701
            -176078079 -1442199126 -522713088 -1995907093 -7628137 -2 -3
            0 8 0 0 0 8 0 0 0 -4 -5 103 -671051501 16842896 268509189
            17039361 -1073741664 -2147483647 83886082 -267878197 -6 -7 3
            0 0 0 16777216 0 0 536870912 0</internalNodes>
          <leafValues>
            -9.8813056945800781e-01 7.1428573131561279e-01 -1. 1.
            -9.6721309423446655e-01 1. -1. 1.</leafValues></_>
        <_>
          <internalNodes>
            1 2 160 -346556681 -687673203 1090597489 1108295687
            -903954301 -100414583 -645677054 -836797485 3 4 37 -82453505
            -105578475 1409614157 -135376123 -1878994533 -1298530166
            -1450016337 -422270 5 6 151 -2147401701 135266305 131329
            -2130706423 136 536870912 0 17432585 0 -1 105 -67929097
            -237272809 1224740883 -150088447 -398409493 -1869610845
            -1987475009 -71315825 -2 -3 0 64 0 0 16777216 268443648
            1048576 0 0 -4 -5 1 1073807429 0 8 -2147481599 33153 1
            151027840 -2112847741 -6 -7 4 0 1 0 0 0 0 0 512</internalNodes>
          <leafValues>
            -9.5262372493743896e-01 1. -1. 1. -1. 1. -1. 1.</leafValues></_></weakClassifiers></_>
    <!-- stage 11 -->
    <_>
      <maxWeakCount>2</maxWeakCount>
      <stageThreshold>5.7636885903775692e-03</stageThreshold>
      <weakClassifiers>
        <_>
          <internalNodes>
            1 2 98 -728682223 -49282779 268439733 -40742463 -1342166339
            -1718056784 -1610577681 -1140127261 3 4 86 -1425738337
            -1759493935 -922740333 -539951093 -1979467333 -645873480
            -595026737 -339236814 5 6 121 779550509 -2013265921 -258
            -285212674 291 -2113929216 -32768 519569398 0 -1 183
            -1659648769 -103767075 -1639970337 -82608123 -339550051
            -612196158 -2129557365 -73750394 -2 -3 64 33587205
            1090600960 8388608 0 1 0 80 -1694367744 -4 -5 0 -2147352559
            1107828736 16 536870913 67108866 134217729 1073742080
            -1467842424 -6 -7 1 131072 0 0 0 0 0 0 0</internalNodes>
          <leafValues>
            -9.9423629045486450e-01 6.0000002384185791e-01 -1. 1. -1. 1.
            -1. 1.</leafValues></_>
        <_>
          <internalNodes>
            1 2 97 671677285 -774451177 1461782929 -49049389 -796811029
            -2144763895 -1926708529 -489928363 3 0 78 -648949313
            1527873807 877072385 -1209689925 -660373363 -938335606
            -922170997 -72355301 4 5 106 1342222357 805306374 1073742080
            1955594240 131153 -2013134848 -2147483646 -1467940863 -1 -2
            80 -250744419 -1118236385 1358954963 -551974901 -2105505059
            -1130889190 -154498897 -1701865317 -3 -4 5 -801011261
            16842752 0 -1073741824 98304 1073741952 524425 -788291382 -5
            -6 152 -2147483648 0 0 -2147481600 1 131088 65796 4224</internalNodes>
          <leafValues>
            8.2571524381637573e-01 -9.9403989315032959e-01
            6.6506254673004150e-01 -1. 1. -1. 1.</leafValues></_></weakClassifiers></_>
    <!-- stage 12 -->
    <_>
      <maxWeakCount>2</maxWeakCount>
      <stageThreshold>1.7094017937779427e-02</stageThreshold>
      <weakClassifiers>
        <_>
          <internalNodes>
            1 2 71 840258901 -1692516335 -1069413990 2139619613
            -1969414001 -1181384574 -628573566 -341245468 3 4 74
            -583051789 -170292901 37293 -841801728 352588027 -1719106928
            -112883507 -3175473 5 6 148 -805240850 -1476395136
            -269488150 -420561153 -134251041 2138570751 -522 938991607 0
            -1 12 -713557025 -187449343 -2130605989 -715622527
            -662463861 -368992242 -754867137 -1577845 -2 -3 11
            -2147483648 33554432 -2147483648 268435458 0 0 0 -2080374784
            -4 -5 1 -2147352574 1476395008 1 33652993 135168 4096
            1090519177 1896022026 -6 -7 3 32768 0 0 0 0 0 512 131072</internalNodes>
          <leafValues>
            -9.8290598392486572e-01 6.0000002384185791e-01 -1. 1. -1. 1.
            -1. 1.</leafValues></_>
        <_>
          <internalNodes>
            1 2 140 357669375 -1305459967 -2061937285 -1613156192
            -1878882114 -1464631149 -612103285 -1144323926 3 4 65
            -149365289 1896939929 16843231 -573693685 -1979610693
            -1450602326 -1844964628 -71597365 5 6 63 34083072 -805306336
            65542 0 -1879048191 32768 134217728 805994504 0 -1 195
            -614866949 -788430776 -2146287467 -780939253 -666796017
            -771750774 -1039996345 -72625521 -2 -3 11 82048 0 0
            268435458 536870912 8388608 32768 -2130640896 -4 -5 2 82050
            268501000 0 16973824 12583040 -2147483648 2048 -1862152158
            -6 -7 8 0 0 0 0 0 0 0 524288</internalNodes>
          <leafValues>
            -9.6819961071014404e-01 4.9677428603172302e-01 -1. 1. -1. 1.
            -1. 1.</leafValues></_></weakClassifiers></_>
    <!-- stage 13 -->
    <_>
      <maxWeakCount>2</maxWeakCount>
      <stageThreshold>1.7142856493592262e-02</stageThreshold>
      <weakClassifiers>
        <_>
          <internalNodes>
            1 2 174 -1008737329 -956263934 285213585 -305696743
            -1065115122 17006602 -1845449178 -268813529 3 4 96
            -606910241 -787251071 286441481 -652639865 -1020628567
            -762273783 -524100883 -5255285 5 6 147 -2147450616
            1073758208 134217728 671088784 8321 16777216 536872972
            -1589509880 0 -1 197 -40902689 -786202367 -1073397373
            -314339070 -1073636853 -1073479544 -1568161782 -739251409 -2
            -3 0 4353 0 128 0 0 0 0 134217730 -4 -5 0 1073922499
            -788529151 0 -519831550 -1610612088 134217728 4196353
            50888704 -6 -7 23 0 256 268435456 1073807361 0 0 8 0</internalNodes>
          <leafValues>
            -9.8285716772079468e-01 7.5000000000000000e-01 -1. 1. -1. 1.
            -1. 1.</leafValues></_>
        <_>
          <internalNodes>
            1 2 192 -550504449 -446697467 1342247425 -1551122367
            -1152744473 -1736245213 1091044759 -203424853 3 4 85
            -1727965295 -115899215 -2126392047 -611254196 -1719101185
            -388298616 -929895761 -1345617215 5 0 34 49681 8388608 0
            4194304 524291 536870912 131080 40960 -1 -2 143 -150603809
            2102853775 -1857975261 -649641888 -2113165106 -360677232
            -1871731301 -67401569 -3 -4 16 -1609428988 16384 4194304
            1078296576 130 -1073741824 536870916 1644331043 -5 -6 0
            1073774657 1073741824 -2147481591 8210 65664 0 10 65536</internalNodes>
          <leafValues>
            1. -9.7275286912918091e-01 7.4622583389282227e-01
            -8.7281221151351929e-01 1. -1. 1.</leafValues></_></weakClassifiers></_>
    <!-- stage 14 -->
    <_>
      <maxWeakCount>1</maxWeakCount>
      <stageThreshold>5.0000000000000000e-01</stageThreshold>
      <weakClassifiers>
        <_>
          <internalNodes>
            1 2 76 293718463 -818867193 1140859354 1313190784 1690306651
            -746061799 -1954487737 -90263157 3 4 180 1434973695
            -73952882 2097537 -209483383 -1071410033 -1065252735
            -1073446485 -70255697 5 6 101 1878912895 2130706431 -32769
            -1627979778 -402915457 -134250753 -16525 -420200585 0 -1 127
            -984540705 -1793916923 -1258225195 928317507 -1920890117
            -24444768 -1652021105 -1410103096 -2 -3 0 0 0 0 0 0 0 0
            -2147483648 -4 -5 18 21915 805306368 268439579 -1870594048
            -1073708918 50331656 1048584 -922042240 -6 -7 44 -1073676288
            0 0 0 0 131072 8 0</internalNodes>
          <leafValues>
            -1. 5.0000000000000000e-01 -1. 1. -1. 1. -1. 1.</leafValues></_></weakClassifiers></_>
    <!-- stage 15 -->
    <_>
      <maxWeakCount>2</maxWeakCount>
      <stageThreshold>-5.0596487522125244e-01</stageThreshold>
      <weakClassifiers>
        <_>
          <internalNodes>
            1 2 194 -195822625 -1517584195 68798933 -381403104
            1665697827 -1383693173 -519986953 -72373617 3 4 0
            -1513629729 -149749317 285773889 -342392296 -528243973
            -108822246 -1970589285 -537003849 0 5 100 310460688 25165824
            384 620756992 -2147478972 8 -2130573312 1074462850 -1 -2 139
            -12587745 -560624301 423821329 -142487421 -793583413
            -1459584854 -619740757 -1586785 -3 -4 26 268435456 0 1 128 0
            0 32897 276856832 -5 -6 45 0 128 32768 268959744 1073741824
            0 0 131074</internalNodes>
          <leafValues>
            -1. -9.8853868246078491e-01 4.5454546809196472e-01 -1. 1.
            -1. 1.</leafValues></_>
        <_>
          <internalNodes>
            1 2 189 -174066949 -1055194665 805507349 -997080128
            422244803 -1660374903 -1957707430 -41172779 3 4 77
            -552872449 -1853554601 -804650945 1401101411 -2092842099
            -1475738996 -1377789782 -4521441 0 5 66 32770 1342177296 0
            -2130706431 160 0 67108992 75640848 -1 -2 137 -102760577
            -804048759 -938471347 -800644736 -1065254387 -1065304063
            117688403 -136320381 -3 -4 0 67108992 0 0 0 -2147483648 0 0
            0 -5 -6 9 4194304 1 0 0 0 0 0 0</internalNodes>
          <leafValues>
            -1. -9.6051037311553955e-01 5.1329171657562256e-01 -1. 1.
            -1. 1.</leafValues></_></weakClassifiers></_>
    <!-- stage 16 -->
    <_>
      <maxWeakCount>2</maxWeakCount>
      <stageThreshold>1.6585597768425941e-02</stageThreshold>
      <weakClassifiers>
        <_>
          <internalNodes>
            1 2 170 1230995387 -1042947629 1138835464 -1836718391
            -1069049581 -897212336 -782663549 -1159005357 3 4 67
            -1591738913 -178667403 -1073521917 -40828891 -1719664198
            -1423472437 -91633477 -1913657251 5 6 75 -2147401458
            17826052 4 -1040187390 8404996 1895874624 -2147479544
            537133058 0 -1 176 -579349537 1468776593 -2113720121
            -182627957 -1949682897 -1997692789 -1048002358 -71320981 -2
            -3 1 8 16384 32768 0 0 32768 0 1073872896 -4 -5 1
            -1862201215 21233665 -2147483648 -1073709056 34 16384
            1073741835 -2113699830 -6 -7 50 74 0 0 0 132 0 128 512</internalNodes>
          <leafValues>
            -9.7733712196350098e-01 6.0000002384185791e-01 -1. 1. -1. 1.
            -1. 1.</leafValues></_>
        <_>
          <internalNodes>
            1 2 90 -786992681 -175119655 -788490853 -167903103
            -1935091719 -1159495135 -629044050 -1087756024 3 4 177
            -1248354497 -36092537 -1258286529 -49331431 1073998397
            -1282755967 -524181153 -14262 5 6 18 -2113895676 -1073741502
            1077936192 1342177280 -1736441815 150994944 134283394
            -2147204992 0 -1 120 -582576705 -586612439 402659423
            -10418923 -1024456467 -391606121 184609231 -5750646 -2 -3 1
            1035 1 8192 0 537427976 0 32768 0 -4 -5 1 25280513 475776
            -2147434495 1048584 9 268435456 -2143207421 1145258370 -6 -7
            0 1048578 0 0 0 1073741824 0 0 0</internalNodes>
          <leafValues>
            -9.8341441154479980e-01 1. -1. 1. -1. 1. -1. 1.</leafValues></_></weakClassifiers></_>
    <!-- stage 17 -->
    <_>
      <maxWeakCount>2</maxWeakCount>
      <stageThreshold>-1.8232527375221252e-01</stageThreshold>
      <weakClassifiers>
        <_>
          <internalNodes>
            1 2 50 -757631497 -648461851 -1853844104 2107146754
            -1734129198 -242613621 -745454689 -6241438 3 4 198
            -741089281 -483458687 1140957201 -1987978941 -1072578353
            2040668419 1900646562 -36720229 5 6 79 524391 -8192 -16385
            -1 -2013232983 269484032 -2113925120 545259906 0 -1 22
            -787115553 -198078379 1963020703 -1680801607 -2004774721
            -58718841 -1333623621 -72646230 -2 -3 12 1073741828 65536 1
            0 8 0 67108865 134217728 -4 -5 15 285212761 1358954496 4097
            553664516 10240 -2147483648 -2147352563 -2147483392 -6 -7 15
            8 0 0 0 0 0 8 128</internalNodes>
          <leafValues>
            -9.8309856653213501e-01 8.0000001192092896e-01 -1. 1. -1. 1.
            -1. 1.</leafValues></_>
        <_>
          <internalNodes>
            1 2 167 -616041473 1158713627 -1022140369 -976041853
            -1065120793 -628383355 -1685778238 -84415873 3 4 182
            -216663017 -779994739 -1224562209 -786755401 1294995673
            -1104796608 -326915881 -76953425 5 0 190 86084 1 0
            1073741824 50331648 -2147483648 11 134230016 -1 -2 111
            -235146321 -177889125 16810063 -650016221 -376990833
            -492699646 -381480254 -269511777 -3 -4 48 1241727315 32768
            16842832 65536 0 134250528 0 -2013061120 -5 -6 1 8538179
            1343225856 0 4194304 4227072 524288 0 -1610563520</internalNodes>
          <leafValues>
            1. -9.8232525587081909e-01 5.6761145591735840e-01
            -8.6398756504058838e-01 1. -1. 1.</leafValues></_></weakClassifiers></_>
    <!-- stage 18 -->
    <_>
      <maxWeakCount>1</maxWeakCount>
      <stageThreshold>1.</stageThreshold>
      <weakClassifiers>
        <_>
          <internalNodes>
            1 2 188 -196739585 -1441136207 -670919817 -154286015
            1371580155 -2013101952 -628407883 -69213973 3 4 150
            1742730207 -877572023 -1675501155 -989507570 -910803698
            -133397847 -1576500773 -12341081 0 5 134 269500677
            -2147483647 -1878851572 -1073737216 -2013102078 32768 1
            9043968 -1 -2 159 -581446273 -620027579 -2091903913
            -443213921 -643716711 -1457159992 -171261521 -22307873 -3 -4
            70 268443665 285212672 1090584704 16384 264 128 134348800
            1082621952 -5 -6 46 67110912 -2147483648 0 0 0 0 33 0</internalNodes>
          <leafValues>
            -1. -1. 1. -1. 1. -1. 1.</leafValues></_></weakClassifiers></_>
    <!-- stage 19 -->
    <_>
      <maxWeakCount>2</maxWeakCount>
      <stageThreshold>1.6493920236825943e-02</stageThreshold>
      <weakClassifiers>
        <_>
          <internalNodes>
            1 2 107 -1719119393 -202816846 -1056961602 -46299114
            1644762873 -1593671640 185625289 -1079088321 3 4 135
            -740566049 -106884741 -2063579757 -116325925 -1972272677
            -1685550583 -532378725 -33698917 0 5 172 -2147483070
            150994945 65537 536870913 554696832 1081345 32784 554074627
            -1 -2 149 -1144843267 -544926949 -1585439457 -8801963
            -2102928389 -201686996 -121009665 -21250005 -3 -4 0 0 0 0 64
            0 0 0 327680 -5 -6 16 0 33554432 0 0 4194304 0 0 8724480</internalNodes>
          <leafValues>
            -1. -9.7245180606842041e-01 1. -1. 1. -1. 1.</leafValues></_>
        <_>
          <internalNodes>
            1 2 163 -1175197697 1896956923 -788495081 -75135989
            -1030639353 -133459961 -750871865 -391264593 3 4 164
            -1757310081 -1621225447 1101004925 -1109721058 -452943129
            -1146576246 1208484074 -3237637 5 6 56 1086881907 1074003968
            -2143289342 -805306368 40971 1 67110914 268698112 0 -1 52
            -146343969 -787250535 1342222721 -845942765 -1071518277
            -1543471101 -29105777 -69206097 -2 -3 19 33032 0 0 16777217
            0 2 0 -2130706430 -4 -5 1 1073779713 1073741833 16384
            1090715777 -2130575360 -2147483648 4 -1068965888 -6 -7 3 0
            65536 0 0 0 0 0 0</internalNodes>
          <leafValues>
            -9.8350608348846436e-01 4.8959845304489136e-01 -1. 1. -1. 1.
            -1. 1.</leafValues></_></weakClassifiers></_>
    <!-- stage 20 -->
    <_>
      <maxWeakCount>2</maxWeakCount>
      <stageThreshold>-1.8261513113975525e-01</stageThreshold>
      <weakClassifiers>
        <_>
          <internalNodes>
            1 2 27 -492838985 -501923437 -478113513 -1274470140
            -1388145873 -1585372159 -1014790071 -134745781 3 4 16
            -87499265 -782248921 -1828655117 -564471779 -242515205
            -1177935606 -1312122487 -86785841 5 0 132 -1292091619
            33488765 0 1073807360 -2145384448 -2147475456 -16160
            117403085 -1 -2 95 -748693505 -1858502329 5841053 -216546289
            -1315732157 -851261431 -2054763833 -69479521 -3 -4 2 0 0 0 0
            196608 0 0 16777216 -5 -6 10 72400953 1342177280 32770
            -2130558974 -1073741696 0 8192 -2147426304</internalNodes>
          <leafValues>
            1. -9.5698922872543335e-01 8.0000001192092896e-01 -1. 1. -1.
            1.</leafValues></_>
        <_>
          <internalNodes>
            1 2 110 -525337601 -779902771 -2000554877 1376961695
            -511221757 1259389570 -1733786095 -11212025 3 4 27
            -203432201 -501923437 -511667945 -1811341050 -1388145873
            -1585372159 -1014790072 -3253 5 6 184 -1811808235
            -1878785920 17 1074266112 -2147481600 0 1342275584
            -1441726464 0 -1 172 -558558497 1897221071 -1078691459
            -712417041 -2137273345 -259816917 -383109059 -5244498 -2 -3
            36 16777218 134217728 0 268435456 10 0 2 -2130706432 -4 -5 2
            1073905668 268976136 16777216 -535822334 -2147483136
            1207959552 -1879014912 -1048248279 -6 -7 10 8 0 2 0 128
            8388608 0 0</internalNodes>
          <leafValues>
            -9.8261511325836182e-01 7.7465528249740601e-01 -1. 1. -1. 1.
            -1. 1.</leafValues></_></weakClassifiers></_>
    <!-- stage 21 -->
    <_>
      <maxWeakCount>1</maxWeakCount>
      <stageThreshold>-8.8235294818878174e-01</stageThreshold>
      <weakClassifiers>
        <_>
          <internalNodes>
            1 2 138 -985159841 -862080228 1090749836 -1388576193
            -741797695 -804720502 -115335610 -21503997 3 4 119
            1402435007 -686571075 -1526593257 -578743787 -268330754
            -57031656 -2012025431 -72394099 5 6 144 1074596673
            -2109652992 4194308 -1978662908 1073741828 1 -2013167615
            1352761858 0 -1 169 -652742065 -2029674351 1073746977
            -687489003 -2126003285 -1035927293 -800997365 -39851317 -2
            -3 1 65537 0 0 32768 8388608 0 4194304 0 -4 -5 0 1426296885
            277168386 1 4194313 536903685 17302048 163855 -1067351917 -6
            -7 162 670031718 -83886084 -4098 -537985051 -135071820 -17
            589837 640477181</internalNodes>
          <leafValues>
            -1. 6.0000002384185791e-01 -1. 1. -1. 1.
            -8.8235294818878174e-01 9.7560977935791016e-01</leafValues></_></weakClassifiers></_>
    <!-- stage 22 -->
    <_>
      <maxWeakCount>2</maxWeakCount>
      <stageThreshold>1.6341164708137512e-02</stageThreshold>
      <weakClassifiers>
        <_>
          <internalNodes>
            1 2 51 357071325 1434921051 -930606691 -876146299
            -1983905159 -1159194476 -612201222 -81200350 3 4 175
            -740953123 -83774013 -1195322103 -1153457621 -2004713310
            -939409276 -291458391 -1110712181 5 6 136 -1360019505
            -1090519059 -4 -21037057 1073777399 -2013257727 -50495693
            -1401782284 0 -1 102 -213388801 -767227069 306184371
            -65875693 -915962685 -2013084672 -1425833473 -72363345 -2 -3
            29 17 -2147483648 0 0 0 8 -1073741568 10551296 -4 -5 33
            1359003905 16843024 32768 264704 8 0 -2147483384 -910000126
            -6 -7 0 0 0 0 0 0 128 0 0</internalNodes>
          <leafValues>
            -9.8305082321166992e-01 6.0000002384185791e-01 -1. 1. -1. 1.
            -1. 1.</leafValues></_>
        <_>
          <internalNodes>
            1 2 111 -1583383713 -1270689729 18995595 -930647821
            1611218979 698329155 -1169481341 -7939561 3 4 69 -1256743009
            -200720363 1447035229 -12094654 -2143241766 -735477624
            -1207917845 -104079351 5 6 68 480 -2130575229 0 268500992
            32778 -2013257726 8421417 -1593310976 0 -1 99 -78917121
            -754462461 -2130100069 -515665245 -131366461 -1022390271
            -247234421 -240137293 -2 -3 6 0 65536 0 0 1 0 0 655360 -4 -5
            0 -803204719 134218752 4096 -1878917119 33554568 -1342177248
            64 -1442832248 -6 -7 40 0 167772160 64 -2147221504 0 0 65536
            8</internalNodes>
          <leafValues>
            -9.8365885019302368e-01 6.3129371404647827e-01 -1. 1. -1. 1.
            -1. 1.</leafValues></_></weakClassifiers></_>
    <!-- stage 23 -->
    <_>
      <maxWeakCount>1</maxWeakCount>
      <stageThreshold>6.0000002384185791e-01</stageThreshold>
      <weakClassifiers>
        <_>
          <internalNodes>
            1 2 126 375083957 -1248587685 1292726607 -1854533479
            -1810730023 428015905 -367623855 -1148311972 3 4 39
            -1848031745 -1828157051 -1207615147 -652733917 -536837953
            -1199012726 -1197463281 -269774374 5 6 129 570611001
            16793601 65537 -2147483648 4227072 17039360 128 -2078746360
            0 -1 28 -813181645 1212367449 -2147467245 855883783
            -1979252055 41975821 -771648845 -538973669 -2 -3 0 33554432
            8388608 0 0 32768 0 1 0 -4 -5 3 1140933382 -2145255424 0
            -2130706424 -2147481600 32770 -1610612728 -645668735 -6 -7
            81 8388608 150994944 1048576 0 2 0 0 -2147483648</internalNodes>
          <leafValues>
            -1. 6.0000002384185791e-01 -1. 1. -1. 1. -1. 1.</leafValues></_></weakClassifiers></_>
    <!-- stage 24 -->
    <_>
      <maxWeakCount>2</maxWeakCount>
      <stageThreshold>2.7173912152647972e-02</stageThreshold>
      <weakClassifiers>
        <_>
          <internalNodes>
            1 2 166 -417991329 -443969053 -779042147 -290258627
            -652688833 1229111424 -1656585659 -252972159 3 4 124
            -2130603077 -1210725609 54563199 -1945009469 -1191138901
            -645398326 -536282132 -268983895 5 6 185 -2097088 788463613
            -2 1157644287 2 8486912 1073741825 452853888 0 -1 84
            -632563329 -788230105 18419915 -174864737 -2146055477
            -1451007993 -465317365 -7607831 -2 -3 5 200 0 -2147483648 2
            0 0 0 4194304 -4 -5 14 33558547 335544336 0 -251657983
            -1073741688 0 0 -2000682975 -6 -7 0 64 0 0 0 0 0 0 0</internalNodes>
          <leafValues>
            -9.7282606363296509e-01 7.7777779102325439e-01 -1. 1. -1. 1.
            -1. 1.</leafValues></_>
        <_>
          <internalNodes>
            1 2 91 304053599 1907378143 419617535 -142045039 -1381807735
            -73230200 1099073421 -1140917558 3 4 42 2002208559
            -649878488 -1073397426 -1315340285 -217282001 1451238024
            -1711154421 -6757681 0 -1 157 33555776 -2147221504
            1073741824 -1073741824 -2147483648 268435458 -2147450876
            1610645504 -2 -3 32 -182984833 -169279337 16863391
            -1182150587 -1258251601 1367507276 -2121662213 -273701 -4 -5
            21 268435457 8519680 0 285212672 0 0 2048 1073741952</internalNodes>
          <leafValues>
            -1. 1. -9.6915876865386963e-01 1. -1. 1.</leafValues></_></weakClassifiers></_></stages>
  <features>
    <_>
      <rect>
        0 0 1 1</rect></_>
    <_>
      <rect>
        0 0 1 2</rect></_>
    <_>
      <rect>
        0 0 1 3</rect></_>
    <_>
      <rect>
        0 0 1 4</rect></_>
    <_>
      <rect>
        0 0 1 5</rect></_>
    <_>
      <rect>
        0 0 1 6</rect></_>
    <_>
      <rect>
        0 0 1 7</rect></_>
    <_>
      <rect>
        0 0 1 8</rect></_>
    <_>
      <rect>
        0 0 2 1</rect></_>
    <_>
      <rect>
        0 0 2 2</rect></_>
    <_>
      <rect>
        0 0 2 3</rect></_>
    <_>
      <rect>
        0 0 2 4</rect></_>
    <_>
      <rect>
        0 0 2 5</rect></_>
    <_>
      <rect>
        0 0 2 6</rect></_>
    <_>
      <rect>
        0 0 3 1</rect></_>
    <_>
      <rect>
        0 0 3 2</rect></_>
    <_>
      <rect>
        0 0 3 3</rect></_>
    <_>
      <rect>
        0 0 3 6</rect></_>
    <_>
      <rect>
        0 0 4 2</rect></_>
    <_>
      <rect>
        0 0 4 3</rect></_>
    <_>
      <rect>
        0 0 4 7</rect></_>
    <_>
      <rect>
        0 0 4 8</rect></_>
    <_>
      <rect>
        0 0 5 1</rect></_>
    <_>
      <rect>
        0 0 5 7</rect></_>
    <_>
      <rect>
        0 0 7 2</rect></_>
    <_>
      <rect>
        0 0 7 3</rect></_>
    <_>
      <rect>
        0 0 8 5</rect></_>
    <_>
      <rect>
        0 1 1 4</rect></_>
    <_>
      <rect>
        0 1 1 8</rect></_>
    <_>
      <rect>
        0 1 3 1</rect></_>
    <_>
      <rect>
        0 1 3 5</rect></_>
    <_>
      <rect>
        0 1 5 1</rect></_>
    <_>
      <rect>
        0 1 6 7</rect></_>
    <_>
      <rect>
        0 2 1 3</rect></_>
    <_>
      <rect>
        0 3 1 3</rect></_>
    <_>
      <rect>
        0 3 3 6</rect></_>
    <_>
      <rect>
        0 4 1 3</rect></_>
    <_>
      <rect>
        0 4 3 2</rect></_>
    <_>
      <rect>
        0 5 1 2</rect></_>
    <_>
      <rect>
        0 5 3 1</rect></_>
    <_>
      <rect>
        0 6 1 1</rect></_>
    <_>
      <rect>
        0 6 1 2</rect></_>
    <_>
      <rect>
        0 6 1 3</rect></_>
    <_>
      <rect>
        0 6 3 6</rect></_>
    <_>
      <rect>
        0 12 2 3</rect></_>
    <_>
      <rect>
        0 13 2 4</rect></_>
    <_>
      <rect>
        0 15 2 2</rect></_>
    <_>
      <rect>
        0 16 7 3</rect></_>
    <_>
      <rect>
        0 19 1 1</rect></_>
    <_>
      <rect>
        0 19 2 2</rect></_>
    <_>
      <rect>
        0 19 3 2</rect></_>
    <_>
      <rect>
        0 22 2 1</rect></_>
    <_>
      <rect>
        1 1 3 4</rect></_>
    <_>
      <rect>
        1 2 7 1</rect></_>
    <_>
      <rect>
        1 4 4 2</rect></_>
    <_>
      <rect>
        1 5 1 2</rect></_>
    <_>
      <rect>
        1 5 1 3</rect></_>
    <_>
      <rect>
        1 6 3 6</rect></_>
    <_>
      <rect>
        1 7 1 2</rect></_>
    <_>
      <rect>
        1 8 1 3</rect></_>
    <_>
      <rect>
        1 9 1 3</rect></_>
    <_>
      <rect>
        1 11 1 3</rect></_>
    <_>
      <rect>
        1 11 2 3</rect></_>
    <_>
      <rect>
        1 12 2 4</rect></_>
    <_>
      <rect>
        1 15 2 2</rect></_>
    <_>
      <rect>
        1 19 3 2</rect></_>
    <_>
      <rect>
        2 0 1 1</rect></_>
    <_>
      <rect>
        2 0 2 1</rect></_>
    <_>
      <rect>
        2 0 2 2</rect></_>
    <_>
      <rect>
        2 0 3 1</rect></_>
    <_>
      <rect>
        2 0 5 7</rect></_>
    <_>
      <rect>
        2 1 3 1</rect></_>
    <_>
      <rect>
        2 1 3 2</rect></_>
    <_>
      <rect>
        2 2 6 2</rect></_>
    <_>
      <rect>
        2 3 3 2</rect></_>
    <_>
      <rect>
        2 6 5 6</rect></_>
    <_>
      <rect>
        2 10 1 1</rect></_>
    <_>
      <rect>
        2 18 2 2</rect></_>
    <_>
      <rect>
        3 0 3 5</rect></_>
    <_>
      <rect>
        3 0 4 2</rect></_>
    <_>
      <rect>
        3 0 6 2</rect></_>
    <_>
      <rect>
        3 5 2 3</rect></_>
    <_>
      <rect>
        3 6 5 5</rect></_>
    <_>
      <rect>
        3 10 1 2</rect></_>
    <_>
      <rect>
        3 13 1 2</rect></_>
    <_>
      <rect>
        4 0 3 1</rect></_>
    <_>
      <rect>
        4 0 4 2</rect></_>
    <_>
      <rect>
        4 5 4 1</rect></_>
    <_>
      <rect>
        4 10 4 5</rect></_>
    <_>
      <rect>
        4 18 3 2</rect></_>
    <_>
      <rect>
        4 22 1 1</rect></_>
    <_>
      <rect>
        4 22 2 1</rect></_>
    <_>
      <rect>
        5 0 2 1</rect></_>
    <_>
      <rect>
        5 0 5 1</rect></_>
    <_>
      <rect>
        5 1 5 2</rect></_>
    <_>
      <rect>
        5 3 2 4</rect></_>
    <_>
      <rect>
        5 4 1 1</rect></_>
    <_>
      <rect>
        6 0 2 2</rect></_>
    <_>
      <rect>
        6 0 6 1</rect></_>
    <_>
      <rect>
        6 5 1 6</rect></_>
    <_>
      <rect>
        6 6 6 6</rect></_>
    <_>
      <rect>
        6 7 2 2</rect></_>
    <_>
      <rect>
        6 10 1 3</rect></_>
    <_>
      <rect>
        6 11 1 2</rect></_>
    <_>
      <rect>
        6 16 4 2</rect></_>
    <_>
      <rect>
        6 17 1 1</rect></_>
    <_>
      <rect>
        6 18 3 2</rect></_>
    <_>
      <rect>
        6 22 1 1</rect></_>
    <_>
      <rect>
        7 3 2 5</rect></_>
    <_>
      <rect>
        7 9 3 4</rect></_>
    <_>
      <rect>
        7 10 1 3</rect></_>
    <_>
      <rect>
        7 12 1 2</rect></_>
    <_>
      <rect>
        7 13 5 3</rect></_>
    <_>
      <rect>
        8 0 2 1</rect></_>
    <_>
      <rect>
        8 0 3 1</rect></_>
    <_>
      <rect>
        8 0 4 1</rect></_>
    <_>
      <rect>
        8 0 5 1</rect></_>
    <_>
      <rect>
        8 2 5 2</rect></_>
    <_>
      <rect>
        8 4 2 3</rect></_>
    <_>
      <rect>
        8 4 4 2</rect></_>
    <_>
      <rect>
        8 5 4 1</rect></_>
    <_>
      <rect>
        8 12 2 2</rect></_>
    <_>
      <rect>
        8 14 3 3</rect></_>
    <_>
      <rect>
        9 1 5 1</rect></_>
    <_>
      <rect>
        9 5 4 1</rect></_>
    <_>
      <rect>
        9 15 1 2</rect></_>
    <_>
      <rect>
        9 22 1 1</rect></_>
    <_>
      <rect>
        10 4 4 1</rect></_>
    <_>
      <rect>
        10 14 1 1</rect></_>
    <_>
      <rect>
        11 0 2 3</rect></_>
    <_>
      <rect>
        11 0 4 1</rect></_>
    <_>
      <rect>
        11 0 4 2</rect></_>
    <_>
      <rect>
        11 1 2 6</rect></_>
    <_>
      <rect>
        11 1 4 1</rect></_>
    <_>
      <rect>
        11 22 2 1</rect></_>
    <_>
      <rect>
        12 1 3 3</rect></_>
    <_>
      <rect>
        12 2 2 2</rect></_>
    <_>
      <rect>
        12 2 2 7</rect></_>
    <_>
      <rect>
        12 6 4 6</rect></_>
    <_>
      <rect>
        12 10 2 4</rect></_>
    <_>
      <rect>
        12 22 2 1</rect></_>
    <_>
      <rect>
        13 0 4 4</rect></_>
    <_>
      <rect>
        13 1 2 1</rect></_>
    <_>
      <rect>
        13 1 2 3</rect></_>
    <_>
      <rect>
        13 3 2 2</rect></_>
    <_>
      <rect>
        13 5 3 5</rect></_>
    <_>
      <rect>
        13 9 3 5</rect></_>
    <_>
      <rect>
        13 11 4 3</rect></_>
    <_>
      <rect>
        13 11 4 4</rect></_>
    <_>
      <rect>
        13 13 3 2</rect></_>
    <_>
      <rect>
        13 14 3 2</rect></_>
    <_>
      <rect>
        13 22 1 1</rect></_>
    <_>
      <rect>
        14 4 2 2</rect></_>
    <_>
      <rect>
        14 5 3 3</rect></_>
    <_>
      <rect>
        14 9 3 5</rect></_>
    <_>
      <rect>
        14 10 3 4</rect></_>
    <_>
      <rect>
        14 10 3 5</rect></_>
    <_>
      <rect>
        14 11 1 1</rect></_>
    <_>
      <rect>
        14 16 1 1</rect></_>
    <_>
      <rect>
        15 0 3 3</rect></_>
    <_>
      <rect>
        15 1 2 5</rect></_>
    <_>
      <rect>
        15 1 3 3</rect></_>
    <_>
      <rect>
        15 1 3 4</rect></_>
    <_>
      <rect>
        15 2 3 4</rect></_>
    <_>
      <rect>
        15 3 2 1</rect></_>
    <_>
      <rect>
        15 3 3 2</rect></_>
    <_>
      <rect>
        15 4 2 3</rect></_>
    <_>
      <rect>
        15 5 2 6</rect></_>
    <_>
      <rect>
        15 5 3 2</rect></_>
    <_>
      <rect>
        15 7 1 4</rect></_>
    <_>
      <rect>
        15 11 1 3</rect></_>
    <_>
      <rect>
        16 1 2 1</rect></_>
    <_>
      <rect>
        16 4 3 3</rect></_>
    <_>
      <rect>
        16 5 2 5</rect></_>
    <_>
      <rect>
        16 7 1 2</rect></_>
    <_>
      <rect>
        16 8 3 5</rect></_>
    <_>
      <rect>
        16 9 2 4</rect></_>
    <_>
      <rect>
        16 10 2 3</rect></_>
    <_>
      <rect>
        16 11 1 4</rect></_>
    <_>
      <rect>
        16 12 2 3</rect></_>
    <_>
      <rect>
        17 2 2 4</rect></_>
    <_>
      <rect>
        17 6 2 6</rect></_>
    <_>
      <rect>
        18 3 2 3</rect></_>
    <_>
      <rect>
        18 5 2 1</rect></_>
    <_>
      <rect>
        18 11 1 4</rect></_>
    <_>
      <rect>
        18 11 2 3</rect></_>
    <_>
      <rect>
        18 11 2 4</rect></_>
    <_>
      <rect>
        19 3 2 4</rect></_>
    <_>
      <rect>
        19 12 2 2</rect></_>
    <_>
      <rect>
        20 9 1 2</rect></_>
    <_>
      <rect>
        21 2 1 1</rect></_>
    <_>
      <rect>
        21 7 1 3</rect></_>
    <_>
      <rect>
        21 9 1 3</rect></_>
    <_>
      <rect>
        21 11 1 2</rect></_>
    <_>
      <rect>
        21 12 1 1</rect></_>
    <_>
      <rect>
        22 0 1 2</rect></_>
    <_>
      <rect>
        22 1 1 2</rect></_>
    <_>
      <rect>
        22 2 1 6</rect></_>
    <_>
      <rect>
        22 6 1 3</rect></_>
    <_>
      <rect>
        22 8 1 2</rect></_>
    <_>
      <rect>
        22 11 1 1</rect></_></features></cascade>
</opencv_storage>
