<?xml version="1.0"?>
<opencv_storage>
<cascade>
  <stageType>BOOST</stageType>
  <featureType>HAAR</featureType>
  <height>20</height>
  <width>20</width>
  <stageParams>
    <boostType>GAB</boostType>
    <minHitRate>9.9500000476837158e-01</minHitRate>
    <maxFalseAlarm>5.0000000000000000e-01</maxFalseAlarm>
    <weightTrimRate>9.4999999999999996e-01</weightTrimRate>
    <maxDepth>1</maxDepth>
    <maxWeakCount>100</maxWeakCount></stageParams>
  <featureParams>
    <maxCatCount>0</maxCatCount>
    <featSize>1</featSize>
    <mode>ALL</mode></featureParams>
  <stageNum>11</stageNum>
  <stages>
    <!-- stage 0 -->
    <_>
      <maxWeakCount>2</maxWeakCount>
      <stageThreshold>-4.3787494301795959e-01</stageThreshold>
      <weakClassifiers>
        <_>
          <internalNodes>
            0 -1 19 -2.4826664477586746e-02</internalNodes>
          <leafValues>
            5.6424582004547119e-01 -9.6219283342361450e-01</leafValues></_>
        <_>
          <internalNodes>
            0 -1 16 5.7930137962102890e-02</internalNodes>
          <leafValues>
            -9.7622728347778320e-01 5.2431786060333252e-01</leafValues></_></weakClassifiers></_>
    <!-- stage 1 -->
    <_>
      <maxWeakCount>3</maxWeakCount>
      <stageThreshold>-1.2094155550003052e+00</stageThreshold>
      <weakClassifiers>
        <_>
          <internalNodes>
            0 -1 3 2.5522905588150024e-01</internalNodes>
          <leafValues>
            -8.9077889919281006e-01 6.4999997615814209e-01</leafValues></_>
        <_>
          <internalNodes>
            0 -1 5 -1.6382938623428345e-01</internalNodes>
          <leafValues>
            8.5201120376586914e-01 -7.8189098834991455e-01</leafValues></_>
        <_>
          <internalNodes>
            0 -1 15 -1.1470236815512180e-02</internalNodes>
          <leafValues>
            4.6325424313545227e-01 -9.6317929029464722e-01</leafValues></_></weakClassifiers></_>
    <!-- stage 2 -->
    <_>
      <maxWeakCount>3</maxWeakCount>
      <stageThreshold>-1.4911431074142456e+00</stageThreshold>
      <weakClassifiers>
        <_>
          <internalNodes>
            0 -1 17 2.1262964606285095e-01</internalNodes>
          <leafValues>
            -8.4562009572982788e-01 6.9047617912292480e-01</leafValues></_>
        <_>
          <internalNodes>
            0 -1 13 -1.6284234821796417e-02</internalNodes>
          <leafValues>
            2.3520888388156891e-01 -8.8128858804702759e-01</leafValues></_>
        <_>
          <internalNodes>
            0 -1 22 6.2789267394691706e-04</internalNodes>
          <leafValues>
            2.3576562106609344e-01 -1.</leafValues></_></weakClassifiers></_>
    <!-- stage 3 -->
    <_>
      <maxWeakCount>3</maxWeakCount>
      <stageThreshold>-1.5587199926376343e+00</stageThreshold>
      <weakClassifiers>
        <_>
          <internalNodes>
            0 -1 2 2.0041874051094055e-01</internalNodes>
          <leafValues>
            -8.6182463169097900e-01 5.1851850748062134e-01</leafValues></_>
        <_>
          <internalNodes>
            0 -1 18 -1.0096627287566662e-02</internalNodes>
          <leafValues>
            1.7818033695220947e-01 -9.8559731245040894e-01</leafValues></_>
        <_>
          <internalNodes>
            0 -1 22 -6.2274548690766096e-04</internalNodes>
          <leafValues>
            -1. 2.8870198130607605e-01</leafValues></_></weakClassifiers></_>
    <!-- stage 4 -->
    <_>
      <maxWeakCount>3</maxWeakCount>
      <stageThreshold>-1.2320905923843384e+00</stageThreshold>
      <weakClassifiers>
        <_>
          <internalNodes>
            0 -1 14 2.5540838018059731e-02</internalNodes>
          <leafValues>
            -8.6666667461395264e-01 3.5433071851730347e-01</leafValues></_>
        <_>
          <internalNodes>
            0 -1 13 -9.7752269357442856e-03</internalNodes>
          <leafValues>
            2.0803211629390717e-01 -9.7256284952163696e-01</leafValues></_>
        <_>
          <internalNodes>
            0 -1 8 -1.8348354101181030e-01</internalNodes>
          <leafValues>
            7.8443878889083862e-01 -5.7345610857009888e-01</leafValues></_></weakClassifiers></_>
    <!-- stage 5 -->
    <_>
      <maxWeakCount>5</maxWeakCount>
      <stageThreshold>-1.8165614604949951e+00</stageThreshold>
      <weakClassifiers>
        <_>
          <internalNodes>
            0 -1 21 -7.0116771385073662e-03</internalNodes>
          <leafValues>
            9.6045196056365967e-02 -8.8113206624984741e-01</leafValues></_>
        <_>
          <internalNodes>
            0 -1 12 9.8037660121917725e-02</internalNodes>
          <leafValues>
            -7.3499643802642822e-01 5.2474850416183472e-01</leafValues></_>
        <_>
          <internalNodes>
            0 -1 11 1.2977877631783485e-02</internalNodes>
          <leafValues>
            -9.0605795383453369e-01 3.9787513017654419e-01</leafValues></_>
        <_>
          <internalNodes>
            0 -1 0 -8.4816550952382386e-05</internalNodes>
          <leafValues>
            -1. 2.7225071191787720e-01</leafValues></_>
        <_>
          <internalNodes>
            0 -1 0 1.1217131395824254e-04</internalNodes>
          <leafValues>
            4.3337425589561462e-01 -9.6717959642410278e-01</leafValues></_></weakClassifiers></_>
    <!-- stage 6 -->
    <_>
      <maxWeakCount>3</maxWeakCount>
      <stageThreshold>-1.3945925235748291e+00</stageThreshold>
      <weakClassifiers>
        <_>
          <internalNodes>
            0 -1 28 3.1407427042722702e-02</internalNodes>
          <leafValues>
            -8.2191783189773560e-01 6.2318837642669678e-01</leafValues></_>
        <_>
          <internalNodes>
            0 -1 0 -1.7336966266157106e-05</internalNodes>
          <leafValues>
            -9.8318421840667725e-01 2.4365302920341492e-01</leafValues></_>
        <_>
          <internalNodes>
            0 -1 20 -7.1737742982804775e-03</internalNodes>
          <leafValues>
            4.1050952672958374e-01 -7.6344233751296997e-01</leafValues></_></weakClassifiers></_>
    <!-- stage 7 -->
    <_>
      <maxWeakCount>3</maxWeakCount>
      <stageThreshold>-1.4182776212692261e+00</stageThreshold>
      <weakClassifiers>
        <_>
          <internalNodes>
            0 -1 26 4.1381372138857841e-03</internalNodes>
          <leafValues>
            -8.7686568498611450e-01 1.3939394056797028e-01</leafValues></_>
        <_>
          <internalNodes>
            0 -1 23 -4.9805187154561281e-04</internalNodes>
          <leafValues>
            3.0657041072845459e-01 -8.5281515121459961e-01</leafValues></_>
        <_>
          <internalNodes>
            0 -1 7 -1.3743431773036718e-03</internalNodes>
          <leafValues>
            3.1140321493148804e-01 -9.5621025562286377e-01</leafValues></_></weakClassifiers></_>
    <!-- stage 8 -->
    <_>
      <maxWeakCount>2</maxWeakCount>
      <stageThreshold>-8.0744373798370361e-01</stageThreshold>
      <weakClassifiers>
        <_>
          <internalNodes>
            0 -1 4 2.1408315002918243e-01</internalNodes>
          <leafValues>
            -8.6437612771987915e-01 2.9770991206169128e-01</leafValues></_>
        <_>
          <internalNodes>
            0 -1 1 8.4033776074647903e-03</internalNodes>
          <leafValues>
            -9.8954147100448608e-01 5.6932400912046432e-02</leafValues></_></weakClassifiers></_>
    <!-- stage 9 -->
    <_>
      <maxWeakCount>4</maxWeakCount>
      <stageThreshold>-1.0645645856857300e+00</stageThreshold>
      <weakClassifiers>
        <_>
          <internalNodes>
            0 -1 27 7.6107583940029144e-02</internalNodes>
          <leafValues>
            -8.1818181276321411e-01 7.6666665077209473e-01</leafValues></_>
        <_>
          <internalNodes>
            0 -1 25 -3.3205889631062746e-03</internalNodes>
          <leafValues>
            4.3444120883941650e-01 -7.1358519792556763e-01</leafValues></_>
        <_>
          <internalNodes>
            0 -1 6 -2.1665629465132952e-03</internalNodes>
          <leafValues>
            -9.5397597551345825e-01 3.2516846060752869e-01</leafValues></_>
        <_>
          <internalNodes>
            0 -1 18 -9.0165659785270691e-03</internalNodes>
          <leafValues>
            2.7315202355384827e-01 -1.</leafValues></_></weakClassifiers></_>
    <!-- stage 10 -->
    <_>
      <maxWeakCount>3</maxWeakCount>
      <stageThreshold>-1.1828974485397339e+00</stageThreshold>
      <weakClassifiers>
        <_>
          <internalNodes>
            0 -1 10 -3.7982404232025146e-02</internalNodes>
          <leafValues>
            1.2056737393140793e-01 -8.5218977928161621e-01</leafValues></_>
        <_>
          <internalNodes>
            0 -1 9 7.6150204986333847e-03</internalNodes>
          <leafValues>
            -6.4073926210403442e-01 4.7872543334960938e-01</leafValues></_>
        <_>
          <internalNodes>
            0 -1 24 1.0187273146584630e-03</internalNodes>
          <leafValues>
            -1. 3.1003153324127197e-01</leafValues></_></weakClassifiers></_></stages>
  <features>
    <_>
      <rects>
        <_>
          0 11 1 4 -1.</_>
        <_>
          0 13 1 2 2.</_></rects>
      <tilted>0</tilted></_>
    <_>
      <rects>
        <_>
          1 3 17 4 -1.</_>
        <_>
          1 4 17 2 2.</_></rects>
      <tilted>0</tilted></_>
    <_>
      <rects>
        <_>
          2 3 14 8 -1.</_>
        <_>
          9 3 7 8 2.</_></rects>
      <tilted>0</tilted></_>
    <_>
      <rects>
        <_>
          3 2 14 15 -1.</_>
        <_>
          10 2 7 15 2.</_></rects>
      <tilted>0</tilted></_>
    <_>
      <rects>
        <_>
          3 3 12 11 -1.</_>
        <_>
          9 3 6 11 2.</_></rects>
      <tilted>0</tilted></_>
    <_>
      <rects>
        <_>
          3 6 14 9 -1.</_>
        <_>
          10 6 7 9 2.</_></rects>
      <tilted>0</tilted></_>
    <_>
      <rects>
        <_>
          4 5 12 8 -1.</_>
        <_>
          7 5 6 8 2.</_></rects>
      <tilted>0</tilted></_>
    <_>
      <rects>
        <_>
          4 12 4 2 -1.</_>
        <_>
          4 13 4 1 2.</_></rects>
      <tilted>0</tilted></_>
    <_>
      <rects>
        <_>
          5 3 12 11 -1.</_>
        <_>
          11 3 6 11 2.</_></rects>
      <tilted>0</tilted></_>
    <_>
      <rects>
        <_>
          5 5 3 2 -1.</_>
        <_>
          6 6 1 2 3.</_></rects>
      <tilted>1</tilted></_>
    <_>
      <rects>
        <_>
          5 8 8 3 -1.</_>
        <_>
          7 8 4 3 2.</_></rects>
      <tilted>0</tilted></_>
    <_>
      <rects>
        <_>
          5 10 10 4 -1.</_>
        <_>
          5 11 10 2 2.</_></rects>
      <tilted>0</tilted></_>
    <_>
      <rects>
        <_>
          6 1 9 8 -1.</_>
        <_>
          6 3 9 4 2.</_></rects>
      <tilted>0</tilted></_>
    <_>
      <rects>
        <_>
          6 8 8 4 -1.</_>
        <_>
          8 8 4 4 2.</_></rects>
      <tilted>0</tilted></_>
    <_>
      <rects>
        <_>
          7 8 6 2 -1.</_>
        <_>
          10 8 3 2 2.</_></rects>
      <tilted>0</tilted></_>
    <_>
      <rects>
        <_>
          7 11 6 4 -1.</_>
        <_>
          7 13 6 2 2.</_></rects>
      <tilted>0</tilted></_>
    <_>
      <rects>
        <_>
          8 1 4 9 -1.</_>
        <_>
          8 4 4 3 3.</_></rects>
      <tilted>0</tilted></_>
    <_>
      <rects>
        <_>
          8 3 12 15 -1.</_>
        <_>
          11 3 6 15 2.</_></rects>
      <tilted>0</tilted></_>
    <_>
      <rects>
        <_>
          9 4 2 12 -1.</_>
        <_>
          9 7 2 6 2.</_></rects>
      <tilted>0</tilted></_>
    <_>
      <rects>
        <_>
          9 6 2 6 -1.</_>
        <_>
          9 8 2 2 3.</_></rects>
      <tilted>0</tilted></_>
    <_>
      <rects>
        <_>
          9 7 2 3 -1.</_>
        <_>
          9 8 2 1 3.</_></rects>
      <tilted>0</tilted></_>
    <_>
      <rects>
        <_>
          9 14 2 3 -1.</_>
        <_>
          9 15 2 1 3.</_></rects>
      <tilted>0</tilted></_>
    <_>
      <rects>
        <_>
          10 4 1 3 -1.</_>
        <_>
          10 5 1 1 3.</_></rects>
      <tilted>0</tilted></_>
    <_>
      <rects>
        <_>
          10 8 2 2 -1.</_>
        <_>
          10 8 1 1 2.</_>
        <_>
          11 9 1 1 2.</_></rects>
      <tilted>0</tilted></_>
    <_>
      <rects>
        <_>
          10 9 1 2 -1.</_>
        <_>
          10 10 1 1 2.</_></rects>
      <tilted>0</tilted></_>
    <_>
      <rects>
        <_>
          10 14 1 3 -1.</_>
        <_>
          10 15 1 1 3.</_></rects>
      <tilted>0</tilted></_>
    <_>
      <rects>
        <_>
          12 9 2 4 -1.</_>
        <_>
          12 9 1 2 2.</_>
        <_>
          13 11 1 2 2.</_></rects>
      <tilted>0</tilted></_>
    <_>
      <rects>
        <_>
          13 6 6 8 -1.</_>
        <_>
          15 6 2 8 3.</_></rects>
      <tilted>0</tilted></_>
    <_>
      <rects>
        <_>
          16 3 3 4 -1.</_>
        <_>
          15 4 3 2 2.</_></rects>
      <tilted>1</tilted></_></features></cascade>
</opencv_storage>
